<?xml version="1.0"?>
<opencv_storage>
<cascade>
  <stageType>BOOST</stageType>
  <featureType>HAAR</featureType>
  <height>20</height>
  <width>20</width>
  <stageParams>
    <boostType>GAB</boostType>
    <minHitRate>9.9500000476837158e-01</minHitRate>
    <maxFalseAlarm>5.0000000000000000e-01</maxFalseAlarm>
    <weightTrimRate>9.4999999999999996e-01</weightTrimRate>
    <maxDepth>1</maxDepth>
    <maxWeakCount>100</maxWeakCount></stageParams>
  <featureParams>
    <maxCatCount>0</maxCatCount>
    <featSize>1</featSize>
    <mode>BASIC</mode></featureParams>
  <stageNum>4</stageNum>
  <stages>
    <!-- stage 0 -->
    <_>
      <maxWeakCount>1</maxWeakCount>
      <stageThreshold>9.7524750232696533e-01</stageThreshold>
      <weakClassifiers>
        <_>
          <internalNodes>
            0 -1 3 1.8778437376022339e-01</internalNodes>
          <leafValues>
            -9.9186992645263672e-01 9.7524750232696533e-01</leafValues></_></weakClassifiers></_>
    <!-- stage 1 -->
    <_>
      <maxWeakCount>2</maxWeakCount>
      <stageThreshold>-1.2327389419078827e-01</stageThreshold>
      <weakClassifiers>
        <_>
          <internalNodes>
            0 -1 4 -1.8523907661437988e-01</internalNodes>
          <leafValues>
            9.3500000238418579e-01 -8.9600002765655518e-01</leafValues></_>
        <_>
          <internalNodes>
            0 -1 6 -7.4445590144023299e-05</internalNodes>
          <leafValues>
            -1. 7.7272611856460571e-01</leafValues></_></weakClassifiers></_>
    <!-- stage 2 -->
    <_>
      <maxWeakCount>2</maxWeakCount>
      <stageThreshold>-1.4105182886123657e-01</stageThreshold>
      <weakClassifiers>
        <_>
          <internalNodes>
            0 -1 1 4.3569386005401611e-01</internalNodes>
          <leafValues>
            -9.4642859697341919e-01 8.4976524114608765e-01</leafValues></_>
        <_>
          <internalNodes>
            0 -1 2 4.3341040611267090e-01</internalNodes>
          <leafValues>
            -8.5874623060226440e-01 8.0537676811218262e-01</leafValues></_></weakClassifiers></_>
    <!-- stage 3 -->
    <_>
      <maxWeakCount>2</maxWeakCount>
      <stageThreshold>-2.3521447181701660e-01</stageThreshold>
      <weakClassifiers>
        <_>
          <internalNodes>
            0 -1 5 7.9314103350043297e-03</internalNodes>
          <leafValues>
            -9.0265488624572754e-01 8.3490568399429321e-01</leafValues></_>
        <_>
          <internalNodes>
            0 -1 0 1.3057138130534440e-04</internalNodes>
          <leafValues>
            6.6744041442871094e-01 -9.9328756332397461e-01</leafValues></_></weakClassifiers></_></stages>
  <features>
    <_>
      <rects>
        <_>
          0 0 2 2 -1.</_>
        <_>
          1 0 1 2 2.</_></rects>
      <tilted>0</tilted></_>
    <_>
      <rects>
        <_>
          1 1 16 18 -1.</_>
        <_>
          1 7 16 6 3.</_></rects>
      <tilted>0</tilted></_>
    <_>
      <rects>
        <_>
          1 5 18 15 -1.</_>
        <_>
          7 5 6 15 3.</_></rects>
      <tilted>0</tilted></_>
    <_>
      <rects>
        <_>
          7 0 7 18 -1.</_>
        <_>
          7 6 7 6 3.</_></rects>
      <tilted>0</tilted></_>
    <_>
      <rects>
        <_>
          8 0 12 20 -1.</_>
        <_>
          14 0 6 20 2.</_></rects>
      <tilted>0</tilted></_>
    <_>
      <rects>
        <_>
          10 4 2 8 -1.</_>
        <_>
          10 8 2 4 2.</_></rects>
      <tilted>0</tilted></_>
    <_>
      <rects>
        <_>
          15 0 5 2 -1.</_>
        <_>
          15 1 5 1 2.</_></rects>
      <tilted>0</tilted></_></features></cascade>
</opencv_storage>
